digraph Tree {
node [shape=box] ;
0 [label="女性 <= 0.5\ngini = 0.44\nsamples = 984\nvalue = [662, 322]"] ;
1 [label="年龄 <= 13.5\ngini = 0.269\nsamples = 638\nvalue = [536, 102]"] ;
0 -> 1 [labeldistance=2.5, labelangle=45, headlabel="True"] ;
2 [label="pclass=3rd <= 0.5\ngini = 0.426\nsamples = 26\nvalue = [8, 18]"] ;
1 -> 2 ;
3 [label="gini = 0.0\nsamples = 14\nvalue = [0, 14]"] ;
2 -> 3 ;
4 [label="年龄 <= 3.5\ngini = 0.444\nsamples = 12\nvalue = [8, 4]"] ;
2 -> 4 ;
5 [label="gini = 0.0\nsamples = 2\nvalue = [0, 2]"] ;
4 -> 5 ;
6 [label="年龄 <= 7.5\ngini = 0.32\nsamples = 10\nvalue = [8, 2]"] ;
4 -> 6 ;
7 [label="gini = 0.0\nsamples = 4\nvalue = [4, 0]"] ;
6 -> 7 ;
8 [label="年龄 <= 10.0\ngini = 0.444\nsamples = 6\nvalue = [4, 2]"] ;
6 -> 8 ;
9 [label="gini = 0.5\nsamples = 4\nvalue = [2, 2]"] ;
8 -> 9 ;
10 [label="gini = 0.0\nsamples = 2\nvalue = [2, 0]"] ;
8 -> 10 ;
11 [label="pclass=1st <= 0.5\ngini = 0.237\nsamples = 612\nvalue = [528, 84]"] ;
1 -> 11 ;
12 [label="年龄 <= 18.5\ngini = 0.161\nsamples = 475\nvalue = [433, 42]"] ;
11 -> 12 ;
13 [label="gini = 0.0\nsamples = 18\nvalue = [18, 0]"] ;
12 -> 13 ;
14 [label="年龄 <= 19.5\ngini = 0.167\nsamples = 457\nvalue = [415, 42]"] ;
12 -> 14 ;
15 [label="pclass=3rd <= 0.5\ngini = 0.42\nsamples = 10\nvalue = [7, 3]"] ;
14 -> 15 ;
16 [label="gini = 0.444\nsamples = 3\nvalue = [2, 1]"] ;
15 -> 16 ;
17 [label="gini = 0.408\nsamples = 7\nvalue = [5, 2]"] ;
15 -> 17 ;
18 [label="年龄 <= 45.5\ngini = 0.159\nsamples = 447\nvalue = [408, 39]"] ;
14 -> 18 ;
19 [label="年龄 <= 44.5\ngini = 0.164\nsamples = 434\nvalue = [395, 39]"] ;
18 -> 19 ;
20 [label="年龄 <= 20.5\ngini = 0.161\nsamples = 431\nvalue = [393, 38]"] ;
19 -> 20 ;
21 [label="gini = 0.0\nsamples = 9\nvalue = [9, 0]"] ;
20 -> 21 ;
22 [label="gini = 0.164\nsamples = 422\nvalue = [384, 38]"] ;
20 -> 22 ;
23 [label="pclass=3rd <= 0.5\ngini = 0.444\nsamples = 3\nvalue = [2, 1]"] ;
19 -> 23 ;
24 [label="gini = 0.0\nsamples = 2\nvalue = [2, 0]"] ;
23 -> 24 ;
25 [label="gini = 0.0\nsamples = 1\nvalue = [0, 1]"] ;
23 -> 25 ;
26 [label="gini = 0.0\nsamples = 13\nvalue = [13, 0]"] ;
18 -> 26 ;
27 [label="年龄 <= 54.5\ngini = 0.425\nsamples = 137\nvalue = [95, 42]"] ;
11 -> 27 ;
28 [label="年龄 <= 47.5\ngini = 0.457\nsamples = 119\nvalue = [77, 42]"] ;
27 -> 28 ;
29 [label="年龄 <= 28.5\ngini = 0.444\nsamples = 105\nvalue = [70, 35]"] ;
28 -> 29 ;
30 [label="年龄 <= 22.5\ngini = 0.499\nsamples = 19\nvalue = [10, 9]"] ;
29 -> 30 ;
31 [label="年龄 <= 20.0\ngini = 0.32\nsamples = 5\nvalue = [4, 1]"] ;
30 -> 31 ;
32 [label="gini = 0.0\nsamples = 2\nvalue = [2, 0]"] ;
31 -> 32 ;
33 [label="gini = 0.444\nsamples = 3\nvalue = [2, 1]"] ;
31 -> 33 ;
34 [label="年龄 <= 26.5\ngini = 0.49\nsamples = 14\nvalue = [6, 8]"] ;
30 -> 34 ;
35 [label="gini = 0.408\nsamples = 7\nvalue = [2, 5]"] ;
34 -> 35 ;
36 [label="gini = 0.49\nsamples = 7\nvalue = [4, 3]"] ;
34 -> 36 ;
37 [label="年龄 <= 30.5\ngini = 0.422\nsamples = 86\nvalue = [60, 26]"] ;
29 -> 37 ;
38 [label="gini = 0.0\nsamples = 5\nvalue = [5, 0]"] ;
37 -> 38 ;
39 [label="年龄 <= 31.097\ngini = 0.436\nsamples = 81\nvalue = [55, 26]"] ;
37 -> 39 ;
40 [label="gini = 0.0\nsamples = 2\nvalue = [0, 2]"] ;
39 -> 40 ;
41 [label="gini = 0.423\nsamples = 79\nvalue = [55, 24]"] ;
39 -> 41 ;
42 [label="年龄 <= 49.5\ngini = 0.5\nsamples = 14\nvalue = [7, 7]"] ;
28 -> 42 ;
43 [label="年龄 <= 48.5\ngini = 0.444\nsamples = 9\nvalue = [3, 6]"] ;
42 -> 43 ;
44 [label="gini = 0.444\nsamples = 3\nvalue = [1, 2]"] ;
43 -> 44 ;
45 [label="gini = 0.444\nsamples = 6\nvalue = [2, 4]"] ;
43 -> 45 ;
46 [label="年龄 <= 52.0\ngini = 0.32\nsamples = 5\nvalue = [4, 1]"] ;
42 -> 46 ;
47 [label="gini = 0.0\nsamples = 2\nvalue = [2, 0]"] ;
46 -> 47 ;
48 [label="gini = 0.444\nsamples = 3\nvalue = [2, 1]"] ;
46 -> 48 ;
49 [label="gini = 0.0\nsamples = 18\nvalue = [18, 0]"] ;
27 -> 49 ;
50 [label="pclass=3rd <= 0.5\ngini = 0.463\nsamples = 346\nvalue = [126, 220]"] ;
0 -> 50 [labeldistance=2.5, labelangle=-45, headlabel="False"] ;
51 [label="pclass=1st <= 0.5\ngini = 0.19\nsamples = 179\nvalue = [19, 160]"] ;
50 -> 51 ;
52 [label="年龄 <= 53.5\ngini = 0.263\nsamples = 77\nvalue = [12, 65]"] ;
51 -> 52 ;
53 [label="年龄 <= 21.5\ngini = 0.248\nsamples = 76\nvalue = [11, 65]"] ;
52 -> 53 ;
54 [label="年龄 <= 17.5\ngini = 0.091\nsamples = 21\nvalue = [1, 20]"] ;
53 -> 54 ;
55 [label="gini = 0.0\nsamples = 11\nvalue = [0, 11]"] ;
54 -> 55 ;
56 [label="年龄 <= 18.5\ngini = 0.18\nsamples = 10\nvalue = [1, 9]"] ;
54 -> 56 ;
57 [label="gini = 0.375\nsamples = 4\nvalue = [1, 3]"] ;
56 -> 57 ;
58 [label="gini = 0.0\nsamples = 6\nvalue = [0, 6]"] ;
56 -> 58 ;
59 [label="年龄 <= 22.5\ngini = 0.298\nsamples = 55\nvalue = [10, 45]"] ;
53 -> 59 ;
60 [label="gini = 0.5\nsamples = 4\nvalue = [2, 2]"] ;
59 -> 60 ;
61 [label="年龄 <= 25.5\ngini = 0.265\nsamples = 51\nvalue = [8, 43]"] ;
59 -> 61 ;
62 [label="gini = 0.0\nsamples = 7\nvalue = [0, 7]"] ;
61 -> 62 ;
63 [label="年龄 <= 27.5\ngini = 0.298\nsamples = 44\nvalue = [8, 36]"] ;
61 -> 63 ;
64 [label="gini = 0.5\nsamples = 4\nvalue = [2, 2]"] ;
63 -> 64 ;
65 [label="gini = 0.255\nsamples = 40\nvalue = [6, 34]"] ;
63 -> 65 ;
66 [label="gini = 0.0\nsamples = 1\nvalue = [1, 0]"] ;
52 -> 66 ;
67 [label="年龄 <= 8.0\ngini = 0.128\nsamples = 102\nvalue = [7, 95]"] ;
51 -> 67 ;
68 [label="gini = 0.0\nsamples = 1\nvalue = [1, 0]"] ;
67 -> 68 ;
69 [label="年龄 <= 31.097\ngini = 0.112\nsamples = 101\nvalue = [6, 95]"] ;
67 -> 69 ;
70 [label="gini = 0.0\nsamples = 26\nvalue = [0, 26]"] ;
69 -> 70 ;
71 [label="年龄 <= 36.5\ngini = 0.147\nsamples = 75\nvalue = [6, 69]"] ;
69 -> 71 ;
72 [label="年龄 <= 35.5\ngini = 0.21\nsamples = 42\nvalue = [5, 37]"] ;
71 -> 72 ;
73 [label="年龄 <= 32.097\ngini = 0.18\nsamples = 40\nvalue = [4, 36]"] ;
72 -> 73 ;
74 [label="gini = 0.198\nsamples = 36\nvalue = [4, 32]"] ;
73 -> 74 ;
75 [label="gini = 0.0\nsamples = 4\nvalue = [0, 4]"] ;
73 -> 75 ;
76 [label="gini = 0.5\nsamples = 2\nvalue = [1, 1]"] ;
72 -> 76 ;
77 [label="年龄 <= 49.5\ngini = 0.059\nsamples = 33\nvalue = [1, 32]"] ;
71 -> 77 ;
78 [label="gini = 0.0\nsamples = 15\nvalue = [0, 15]"] ;
77 -> 78 ;
79 [label="年龄 <= 51.0\ngini = 0.105\nsamples = 18\nvalue = [1, 17]"] ;
77 -> 79 ;
80 [label="gini = 0.444\nsamples = 3\nvalue = [1, 2]"] ;
79 -> 80 ;
81 [label="gini = 0.0\nsamples = 15\nvalue = [0, 15]"] ;
79 -> 81 ;
82 [label="年龄 <= 19.5\ngini = 0.46\nsamples = 167\nvalue = [107, 60]"] ;
50 -> 82 ;
83 [label="年龄 <= 12.5\ngini = 0.491\nsamples = 23\nvalue = [10, 13]"] ;
82 -> 83 ;
84 [label="年龄 <= 5.5\ngini = 0.375\nsamples = 8\nvalue = [6, 2]"] ;
83 -> 84 ;
85 [label="年龄 <= 1.083\ngini = 0.444\nsamples = 3\nvalue = [1, 2]"] ;
84 -> 85 ;
86 [label="gini = 0.0\nsamples = 1\nvalue = [0, 1]"] ;
85 -> 86 ;
87 [label="年龄 <= 3.5\ngini = 0.5\nsamples = 2\nvalue = [1, 1]"] ;
85 -> 87 ;
88 [label="gini = 0.0\nsamples = 1\nvalue = [1, 0]"] ;
87 -> 88 ;
89 [label="gini = 0.0\nsamples = 1\nvalue = [0, 1]"] ;
87 -> 89 ;
90 [label="gini = 0.0\nsamples = 5\nvalue = [5, 0]"] ;
84 -> 90 ;
91 [label="年龄 <= 16.5\ngini = 0.391\nsamples = 15\nvalue = [4, 11]"] ;
83 -> 91 ;
92 [label="gini = 0.0\nsamples = 4\nvalue = [0, 4]"] ;
91 -> 92 ;
93 [label="年龄 <= 18.5\ngini = 0.463\nsamples = 11\nvalue = [4, 7]"] ;
91 -> 93 ;
94 [label="年龄 <= 17.5\ngini = 0.48\nsamples = 10\nvalue = [4, 6]"] ;
93 -> 94 ;
95 [label="gini = 0.444\nsamples = 3\nvalue = [1, 2]"] ;
94 -> 95 ;
96 [label="gini = 0.49\nsamples = 7\nvalue = [3, 4]"] ;
94 -> 96 ;
97 [label="gini = 0.0\nsamples = 1\nvalue = [0, 1]"] ;
93 -> 97 ;
98 [label="年龄 <= 21.5\ngini = 0.44\nsamples = 144\nvalue = [97, 47]"] ;
82 -> 98 ;
99 [label="gini = 0.0\nsamples = 4\nvalue = [4, 0]"] ;
98 -> 99 ;
100 [label="年龄 <= 39.0\ngini = 0.446\nsamples = 140\nvalue = [93, 47]"] ;
98 -> 100 ;
101 [label="年龄 <= 32.5\ngini = 0.452\nsamples = 136\nvalue = [89, 47]"] ;
100 -> 101 ;
102 [label="年龄 <= 26.0\ngini = 0.435\nsamples = 128\nvalue = [87, 41]"] ;
101 -> 102 ;
103 [label="年龄 <= 22.5\ngini = 0.48\nsamples = 5\nvalue = [2, 3]"] ;
102 -> 103 ;
104 [label="gini = 0.5\nsamples = 2\nvalue = [1, 1]"] ;
103 -> 104 ;
105 [label="gini = 0.444\nsamples = 3\nvalue = [1, 2]"] ;
103 -> 105 ;
106 [label="年龄 <= 29.0\ngini = 0.427\nsamples = 123\nvalue = [85, 38]"] ;
102 -> 106 ;
107 [label="gini = 0.0\nsamples = 1\nvalue = [1, 0]"] ;
106 -> 107 ;
108 [label="gini = 0.429\nsamples = 122\nvalue = [84, 38]"] ;
106 -> 108 ;
109 [label="年龄 <= 36.5\ngini = 0.375\nsamples = 8\nvalue = [2, 6]"] ;
101 -> 109 ;
110 [label="gini = 0.0\nsamples = 5\nvalue = [0, 5]"] ;
109 -> 110 ;
111 [label="年龄 <= 37.5\ngini = 0.444\nsamples = 3\nvalue = [2, 1]"] ;
109 -> 111 ;
112 [label="gini = 0.0\nsamples = 1\nvalue = [1, 0]"] ;
111 -> 112 ;
113 [label="gini = 0.5\nsamples = 2\nvalue = [1, 1]"] ;
111 -> 113 ;
114 [label="gini = 0.0\nsamples = 4\nvalue = [4, 0]"] ;
100 -> 114 ;
}