digraph Tree {
node [shape=box] ;
0 [label="男性 <= 0.5\ngini = 0.448\nsamples = 984\nvalue = [650, 334]"] ;
1 [label="pclass=3rd <= 0.5\ngini = 0.449\nsamples = 355\nvalue = [121, 234]"] ;
0 -> 1 [labeldistance=2.5, labelangle=45, headlabel="True"] ;
2 [label="pclass=1st <= 0.5\ngini = 0.154\nsamples = 190\nvalue = [16, 174]"] ;
1 -> 2 ;
3 [label="年龄 <= 55.0\ngini = 0.237\nsamples = 80\nvalue = [11, 69]"] ;
2 -> 3 ;
4 [label="年龄 <= 17.5\ngini = 0.221\nsamples = 79\nvalue = [10, 69]"] ;
3 -> 4 ;
5 [label="gini = 0.0\nsamples = 9\nvalue = [0, 9]"] ;
4 -> 5 ;
6 [label="年龄 <= 44.5\ngini = 0.245\nsamples = 70\nvalue = [10, 60]"] ;
4 -> 6 ;
7 [label="年龄 <= 43.0\ngini = 0.264\nsamples = 64\nvalue = [10, 54]"] ;
6 -> 7 ;
8 [label="年龄 <= 31.597\ngini = 0.245\nsamples = 63\nvalue = [9, 54]"] ;
7 -> 8 ;
9 [label="gini = 0.287\nsamples = 46\nvalue = [8, 38]"] ;
8 -> 9 ;
10 [label="gini = 0.111\nsamples = 17\nvalue = [1, 16]"] ;
8 -> 10 ;
11 [label="gini = 0.0\nsamples = 1\nvalue = [1, 0]"] ;
7 -> 11 ;
12 [label="gini = 0.0\nsamples = 6\nvalue = [0, 6]"] ;
6 -> 12 ;
13 [label="gini = 0.0\nsamples = 1\nvalue = [1, 0]"] ;
3 -> 13 ;
14 [label="年龄 <= 8.0\ngini = 0.087\nsamples = 110\nvalue = [5, 105]"] ;
2 -> 14 ;
15 [label="gini = 0.0\nsamples = 1\nvalue = [1, 0]"] ;
14 -> 15 ;
16 [label="年龄 <= 32.097\ngini = 0.071\nsamples = 109\nvalue = [4, 105]"] ;
14 -> 16 ;
17 [label="年龄 <= 31.097\ngini = 0.112\nsamples = 67\nvalue = [4, 63]"] ;
16 -> 17 ;
18 [label="gini = 0.0\nsamples = 30\nvalue = [0, 30]"] ;
17 -> 18 ;
19 [label="gini = 0.193\nsamples = 37\nvalue = [4, 33]"] ;
17 -> 19 ;
20 [label="gini = 0.0\nsamples = 42\nvalue = [0, 42]"] ;
16 -> 20 ;
21 [label="年龄 <= 25.5\ngini = 0.463\nsamples = 165\nvalue = [105, 60]"] ;
1 -> 21 ;
22 [label="年龄 <= 21.5\ngini = 0.499\nsamples = 27\nvalue = [14, 13]"] ;
21 -> 22 ;
23 [label="年龄 <= 19.5\ngini = 0.483\nsamples = 22\nvalue = [13, 9]"] ;
22 -> 23 ;
24 [label="年龄 <= 12.0\ngini = 0.5\nsamples = 18\nvalue = [9, 9]"] ;
23 -> 24 ;
25 [label="年龄 <= 5.5\ngini = 0.408\nsamples = 7\nvalue = [5, 2]"] ;
24 -> 25 ;
26 [label="年龄 <= 2.5\ngini = 0.444\nsamples = 3\nvalue = [1, 2]"] ;
25 -> 26 ;
27 [label="gini = 0.0\nsamples = 1\nvalue = [1, 0]"] ;
26 -> 27 ;
28 [label="gini = 0.0\nsamples = 2\nvalue = [0, 2]"] ;
26 -> 28 ;
29 [label="gini = 0.0\nsamples = 4\nvalue = [4, 0]"] ;
25 -> 29 ;
30 [label="年龄 <= 16.5\ngini = 0.463\nsamples = 11\nvalue = [4, 7]"] ;
24 -> 30 ;
31 [label="gini = 0.0\nsamples = 2\nvalue = [0, 2]"] ;
30 -> 31 ;
32 [label="年龄 <= 18.5\ngini = 0.494\nsamples = 9\nvalue = [4, 5]"] ;
30 -> 32 ;
33 [label="gini = 0.5\nsamples = 8\nvalue = [4, 4]"] ;
32 -> 33 ;
34 [label="gini = 0.0\nsamples = 1\nvalue = [0, 1]"] ;
32 -> 34 ;
35 [label="gini = 0.0\nsamples = 4\nvalue = [4, 0]"] ;
23 -> 35 ;
36 [label="年龄 <= 22.5\ngini = 0.32\nsamples = 5\nvalue = [1, 4]"] ;
22 -> 36 ;
37 [label="gini = 0.444\nsamples = 3\nvalue = [1, 2]"] ;
36 -> 37 ;
38 [label="gini = 0.0\nsamples = 2\nvalue = [0, 2]"] ;
36 -> 38 ;
39 [label="年龄 <= 28.5\ngini = 0.449\nsamples = 138\nvalue = [91, 47]"] ;
21 -> 39 ;
40 [label="gini = 0.0\nsamples = 1\nvalue = [1, 0]"] ;
39 -> 40 ;
41 [label="年龄 <= 46.5\ngini = 0.451\nsamples = 137\nvalue = [90, 47]"] ;
39 -> 41 ;
42 [label="年龄 <= 34.0\ngini = 0.452\nsamples = 136\nvalue = [89, 47]"] ;
41 -> 42 ;
43 [label="年龄 <= 31.597\ngini = 0.446\nsamples = 128\nvalue = [85, 43]"] ;
42 -> 43 ;
44 [label="年龄 <= 30.597\ngini = 0.448\nsamples = 127\nvalue = [84, 43]"] ;
43 -> 44 ;
45 [label="gini = 0.5\nsamples = 2\nvalue = [1, 1]"] ;
44 -> 45 ;
46 [label="gini = 0.446\nsamples = 125\nvalue = [83, 42]"] ;
44 -> 46 ;
47 [label="gini = 0.0\nsamples = 1\nvalue = [1, 0]"] ;
43 -> 47 ;
48 [label="年龄 <= 36.5\ngini = 0.5\nsamples = 8\nvalue = [4, 4]"] ;
42 -> 48 ;
49 [label="gini = 0.0\nsamples = 2\nvalue = [0, 2]"] ;
48 -> 49 ;
50 [label="年龄 <= 37.5\ngini = 0.444\nsamples = 6\nvalue = [4, 2]"] ;
48 -> 50 ;
51 [label="gini = 0.0\nsamples = 1\nvalue = [1, 0]"] ;
50 -> 51 ;
52 [label="gini = 0.48\nsamples = 5\nvalue = [3, 2]"] ;
50 -> 52 ;
53 [label="gini = 0.0\nsamples = 1\nvalue = [1, 0]"] ;
41 -> 53 ;
54 [label="年龄 <= 12.0\ngini = 0.267\nsamples = 629\nvalue = [529, 100]"] ;
0 -> 54 [labeldistance=2.5, labelangle=-45, headlabel="False"] ;
55 [label="pclass=3rd <= 0.5\ngini = 0.401\nsamples = 18\nvalue = [5, 13]"] ;
54 -> 55 ;
56 [label="gini = 0.0\nsamples = 8\nvalue = [0, 8]"] ;
55 -> 56 ;
57 [label="年龄 <= 3.5\ngini = 0.5\nsamples = 10\nvalue = [5, 5]"] ;
55 -> 57 ;
58 [label="gini = 0.0\nsamples = 3\nvalue = [0, 3]"] ;
57 -> 58 ;
59 [label="年龄 <= 7.5\ngini = 0.408\nsamples = 7\nvalue = [5, 2]"] ;
57 -> 59 ;
60 [label="gini = 0.0\nsamples = 3\nvalue = [3, 0]"] ;
59 -> 60 ;
61 [label="gini = 0.5\nsamples = 4\nvalue = [2, 2]"] ;
59 -> 61 ;
62 [label="pclass=1st <= 0.5\ngini = 0.244\nsamples = 611\nvalue = [524, 87]"] ;
54 -> 62 ;
63 [label="年龄 <= 32.5\ngini = 0.184\nsamples = 479\nvalue = [430, 49]"] ;
62 -> 63 ;
64 [label="年龄 <= 18.5\ngini = 0.197\nsamples = 424\nvalue = [377, 47]"] ;
63 -> 64 ;
65 [label="gini = 0.0\nsamples = 16\nvalue = [16, 0]"] ;
64 -> 65 ;
66 [label="年龄 <= 19.5\ngini = 0.204\nsamples = 408\nvalue = [361, 47]"] ;
64 -> 66 ;
67 [label="pclass=3rd <= 0.5\ngini = 0.397\nsamples = 11\nvalue = [8, 3]"] ;
66 -> 67 ;
68 [label="gini = 0.375\nsamples = 4\nvalue = [3, 1]"] ;
67 -> 68 ;
69 [label="gini = 0.408\nsamples = 7\nvalue = [5, 2]"] ;
67 -> 69 ;
70 [label="年龄 <= 31.597\ngini = 0.197\nsamples = 397\nvalue = [353, 44]"] ;
66 -> 70 ;
71 [label="年龄 <= 31.097\ngini = 0.193\nsamples = 389\nvalue = [347, 42]"] ;
70 -> 71 ;
72 [label="gini = 0.15\nsamples = 98\nvalue = [90, 8]"] ;
71 -> 72 ;
73 [label="gini = 0.206\nsamples = 291\nvalue = [257, 34]"] ;
71 -> 73 ;
74 [label="pclass=3rd <= 0.5\ngini = 0.375\nsamples = 8\nvalue = [6, 2]"] ;
70 -> 74 ;
75 [label="gini = 0.444\nsamples = 3\nvalue = [2, 1]"] ;
74 -> 75 ;
76 [label="gini = 0.32\nsamples = 5\nvalue = [4, 1]"] ;
74 -> 76 ;
77 [label="pclass=3rd <= 0.5\ngini = 0.07\nsamples = 55\nvalue = [53, 2]"] ;
63 -> 77 ;
78 [label="gini = 0.0\nsamples = 31\nvalue = [31, 0]"] ;
77 -> 78 ;
79 [label="年龄 <= 44.5\ngini = 0.153\nsamples = 24\nvalue = [22, 2]"] ;
77 -> 79 ;
80 [label="年龄 <= 36.5\ngini = 0.095\nsamples = 20\nvalue = [19, 1]"] ;
79 -> 80 ;
81 [label="年龄 <= 35.5\ngini = 0.219\nsamples = 8\nvalue = [7, 1]"] ;
80 -> 81 ;
82 [label="gini = 0.0\nsamples = 6\nvalue = [6, 0]"] ;
81 -> 82 ;
83 [label="gini = 0.5\nsamples = 2\nvalue = [1, 1]"] ;
81 -> 83 ;
84 [label="gini = 0.0\nsamples = 12\nvalue = [12, 0]"] ;
80 -> 84 ;
85 [label="年龄 <= 46.0\ngini = 0.375\nsamples = 4\nvalue = [3, 1]"] ;
79 -> 85 ;
86 [label="gini = 0.0\nsamples = 1\nvalue = [0, 1]"] ;
85 -> 86 ;
87 [label="gini = 0.0\nsamples = 3\nvalue = [3, 0]"] ;
85 -> 87 ;
88 [label="年龄 <= 56.5\ngini = 0.41\nsamples = 132\nvalue = [94, 38]"] ;
62 -> 88 ;
89 [label="年龄 <= 28.5\ngini = 0.435\nsamples = 119\nvalue = [81, 38]"] ;
88 -> 89 ;
90 [label="年龄 <= 24.5\ngini = 0.5\nsamples = 14\nvalue = [7, 7]"] ;
89 -> 90 ;
91 [label="年龄 <= 15.5\ngini = 0.278\nsamples = 6\nvalue = [5, 1]"] ;
90 -> 91 ;
92 [label="gini = 0.0\nsamples = 1\nvalue = [0, 1]"] ;
91 -> 92 ;
93 [label="gini = 0.0\nsamples = 5\nvalue = [5, 0]"] ;
91 -> 93 ;
94 [label="年龄 <= 26.5\ngini = 0.375\nsamples = 8\nvalue = [2, 6]"] ;
90 -> 94 ;
95 [label="gini = 0.0\nsamples = 3\nvalue = [0, 3]"] ;
94 -> 95 ;
96 [label="年龄 <= 27.5\ngini = 0.48\nsamples = 5\nvalue = [2, 3]"] ;
94 -> 96 ;
97 [label="gini = 0.444\nsamples = 3\nvalue = [1, 2]"] ;
96 -> 97 ;
98 [label="gini = 0.5\nsamples = 2\nvalue = [1, 1]"] ;
96 -> 98 ;
99 [label="年龄 <= 30.5\ngini = 0.416\nsamples = 105\nvalue = [74, 31]"] ;
89 -> 99 ;
100 [label="gini = 0.0\nsamples = 5\nvalue = [5, 0]"] ;
99 -> 100 ;
101 [label="年龄 <= 47.5\ngini = 0.428\nsamples = 100\nvalue = [69, 31]"] ;
99 -> 101 ;
102 [label="年龄 <= 38.5\ngini = 0.407\nsamples = 81\nvalue = [58, 23]"] ;
101 -> 102 ;
103 [label="gini = 0.455\nsamples = 60\nvalue = [39, 21]"] ;
102 -> 103 ;
104 [label="gini = 0.172\nsamples = 21\nvalue = [19, 2]"] ;
102 -> 104 ;
105 [label="年龄 <= 49.5\ngini = 0.488\nsamples = 19\nvalue = [11, 8]"] ;
101 -> 105 ;
106 [label="gini = 0.408\nsamples = 7\nvalue = [2, 5]"] ;
105 -> 106 ;
107 [label="gini = 0.375\nsamples = 12\nvalue = [9, 3]"] ;
105 -> 107 ;
108 [label="gini = 0.0\nsamples = 13\nvalue = [13, 0]"] ;
88 -> 108 ;
}